<?xml version="1.0"?>
<opencv_storage>
<cascade>
  <stageType>BOOST</stageType>
  <featureType>HAAR</featureType>
  <height>20</height>
  <width>60</width>
  <stageParams>
    <boostType>GAB</boostType>
    <minHitRate>9.5999997854232788e-01</minHitRate>
    <maxFalseAlarm>4.0000000596046448e-01</maxFalseAlarm>
    <weightTrimRate>9.4999999999999996e-01</weightTrimRate>
    <maxDepth>1</maxDepth>
    <maxWeakCount>100</maxWeakCount></stageParams>
  <featureParams>
    <maxCatCount>0</maxCatCount>
    <featSize>1</featSize>
    <mode>ALL</mode></featureParams>
  <stageNum>16</stageNum>
  <stages>
    <!-- stage 0 -->
    <_>
      <maxWeakCount>3</maxWeakCount>
      <stageThreshold>-8.0443423986434937e-01</stageThreshold>
      <weakClassifiers>
        <_>
          <internalNodes>
            0 -1 55 3.0893739312887192e-02</internalNodes>
          <leafValues>
            -7.8702807426452637e-01 6.2679427862167358e-01</leafValues></_>
        <_>
          <internalNodes>
            0 -1 11 -4.1978999972343445e-02</internalNodes>
          <leafValues>
            7.4525523185729980e-01 -5.7046419382095337e-01</leafValues></_>
        <_>
          <internalNodes>
            0 -1 81 -5.0187315791845322e-03</internalNodes>
          <leafValues>
            5.5305802822113037e-01 -6.3982343673706055e-01</leafValues></_></weakClassifiers></_>
    <!-- stage 1 -->
    <_>
      <maxWeakCount>5</maxWeakCount>
      <stageThreshold>-8.8216733932495117e-01</stageThreshold>
      <weakClassifiers>
        <_>
          <internalNodes>
            0 -1 24 1.5183876454830170e-01</internalNodes>
          <leafValues>
            -7.4354064464569092e-01 5.5665022134780884e-01</leafValues></_>
        <_>
          <internalNodes>
            0 -1 53 2.0494777709245682e-03</internalNodes>
          <leafValues>
            -5.0688356161117554e-01 6.4245569705963135e-01</leafValues></_>
        <_>
          <internalNodes>
            0 -1 23 4.7022588551044464e-03</internalNodes>
          <leafValues>
            2.8563570976257324e-01 -9.0948283672332764e-01</leafValues></_>
        <_>
          <internalNodes>
            0 -1 16 -1.9265774637460709e-02</internalNodes>
          <leafValues>
            6.3838440179824829e-01 -4.0338906645774841e-01</leafValues></_>
        <_>
          <internalNodes>
            0 -1 73 -6.7840963602066040e-03</internalNodes>
          <leafValues>
            4.8601025342941284e-01 -5.7112562656402588e-01</leafValues></_></weakClassifiers></_>
    <!-- stage 2 -->
    <_>
      <maxWeakCount>5</maxWeakCount>
      <stageThreshold>-1.2160209417343140e+00</stageThreshold>
      <weakClassifiers>
        <_>
          <internalNodes>
            0 -1 2 2.4842787533998489e-02</internalNodes>
          <leafValues>
            -6.4574378728866577e-01 6.9444441795349121e-01</leafValues></_>
        <_>
          <internalNodes>
            0 -1 21 -8.0789022147655487e-02</internalNodes>
          <leafValues>
            6.6750729084014893e-01 -4.5926186442375183e-01</leafValues></_>
        <_>
          <internalNodes>
            0 -1 71 -3.0548581853508949e-03</internalNodes>
          <leafValues>
            4.2282927036285400e-01 -6.5989512205123901e-01</leafValues></_>
        <_>
          <internalNodes>
            0 -1 85 1.6671166522428393e-03</internalNodes>
          <leafValues>
            -3.4780788421630859e-01 6.4304381608963013e-01</leafValues></_>
        <_>
          <internalNodes>
            0 -1 83 -8.5000526160001755e-03</internalNodes>
          <leafValues>
            7.9309147596359253e-01 -2.3008151352405548e-01</leafValues></_></weakClassifiers></_>
    <!-- stage 3 -->
    <_>
      <maxWeakCount>5</maxWeakCount>
      <stageThreshold>-1.3692017793655396e+00</stageThreshold>
      <weakClassifiers>
        <_>
          <internalNodes>
            0 -1 44 -5.3119063377380371e-02</internalNodes>
          <leafValues>
            3.1034481525421143e-01 -7.0415401458740234e-01</leafValues></_>
        <_>
          <internalNodes>
            0 -1 19 -7.4697136878967285e-03</internalNodes>
          <leafValues>
            6.8259119987487793e-01 -3.9222353696823120e-01</leafValues></_>
        <_>
          <internalNodes>
            0 -1 56 6.2335184775292873e-03</internalNodes>
          <leafValues>
            -6.7946308851242065e-01 3.3447587490081787e-01</leafValues></_>
        <_>
          <internalNodes>
            0 -1 10 -3.4697689116001129e-02</internalNodes>
          <leafValues>
            6.0455524921417236e-01 -3.2876977324485779e-01</leafValues></_>
        <_>
          <internalNodes>
            0 -1 41 4.9023714382201433e-04</internalNodes>
          <leafValues>
            -2.7909022569656372e-01 6.5088295936584473e-01</leafValues></_></weakClassifiers></_>
    <!-- stage 4 -->
    <_>
      <maxWeakCount>6</maxWeakCount>
      <stageThreshold>-8.8073194026947021e-01</stageThreshold>
      <weakClassifiers>
        <_>
          <internalNodes>
            0 -1 86 -1.7486210912466049e-02</internalNodes>
          <leafValues>
            4.0268456935882568e-01 -5.8196008205413818e-01</leafValues></_>
        <_>
          <internalNodes>
            0 -1 62 3.8902200758457184e-03</internalNodes>
          <leafValues>
            -6.3001096248626709e-01 2.5563398003578186e-01</leafValues></_>
        <_>
          <internalNodes>
            0 -1 17 4.7672018408775330e-03</internalNodes>
          <leafValues>
            2.0270329713821411e-01 -7.8463745117187500e-01</leafValues></_>
        <_>
          <internalNodes>
            0 -1 78 -3.2461120281368494e-04</internalNodes>
          <leafValues>
            2.1988157927989960e-01 -7.0714366436004639e-01</leafValues></_>
        <_>
          <internalNodes>
            0 -1 54 7.2785600787028670e-04</internalNodes>
          <leafValues>
            -2.8503540158271790e-01 6.3430154323577881e-01</leafValues></_>
        <_>
          <internalNodes>
            0 -1 72 1.8796708434820175e-02</internalNodes>
          <leafValues>
            2.3506996035575867e-01 -8.2554149627685547e-01</leafValues></_></weakClassifiers></_>
    <!-- stage 5 -->
    <_>
      <maxWeakCount>6</maxWeakCount>
      <stageThreshold>-6.5251344442367554e-01</stageThreshold>
      <weakClassifiers>
        <_>
          <internalNodes>
            0 -1 6 2.1504236385226250e-02</internalNodes>
          <leafValues>
            -7.0930230617523193e-01 9.9830798804759979e-02</leafValues></_>
        <_>
          <internalNodes>
            0 -1 67 1.3624727725982666e-03</internalNodes>
          <leafValues>
            -3.3403575420379639e-01 5.7221978902816772e-01</leafValues></_>
        <_>
          <internalNodes>
            0 -1 35 1.8640624359250069e-02</internalNodes>
          <leafValues>
            2.0584066212177277e-01 -8.8442867994308472e-01</leafValues></_>
        <_>
          <internalNodes>
            0 -1 33 -2.2660844027996063e-02</internalNodes>
          <leafValues>
            -8.3178651332855225e-01 2.2084158658981323e-01</leafValues></_>
        <_>
          <internalNodes>
            0 -1 47 -2.9532218351960182e-02</internalNodes>
          <leafValues>
            4.9704584479331970e-01 -3.5831555724143982e-01</leafValues></_>
        <_>
          <internalNodes>
            0 -1 70 1.5532064717262983e-03</internalNodes>
          <leafValues>
            -3.0728670954704285e-01 5.6595295667648315e-01</leafValues></_></weakClassifiers></_>
    <!-- stage 6 -->
    <_>
      <maxWeakCount>5</maxWeakCount>
      <stageThreshold>-5.8804398775100708e-01</stageThreshold>
      <weakClassifiers>
        <_>
          <internalNodes>
            0 -1 15 1.1718275025486946e-02</internalNodes>
          <leafValues>
            -6.0262417793273926e-01 2.3958332836627960e-01</leafValues></_>
        <_>
          <internalNodes>
            0 -1 37 2.3362636566162109e-02</internalNodes>
          <leafValues>
            -6.5747869014739990e-01 2.6287096738815308e-01</leafValues></_>
        <_>
          <internalNodes>
            0 -1 69 3.7469454109668732e-02</internalNodes>
          <leafValues>
            -6.8819487094879150e-01 2.1111673116683960e-01</leafValues></_>
        <_>
          <internalNodes>
            0 -1 29 -1.0837546142283827e-04</internalNodes>
          <leafValues>
            2.7504351735115051e-01 -6.3700038194656372e-01</leafValues></_>
        <_>
          <internalNodes>
            0 -1 38 6.2859654426574707e-02</internalNodes>
          <leafValues>
            1.8589857220649719e-01 -9.5277529954910278e-01</leafValues></_></weakClassifiers></_>
    <!-- stage 7 -->
    <_>
      <maxWeakCount>6</maxWeakCount>
      <stageThreshold>-7.7223980426788330e-01</stageThreshold>
      <weakClassifiers>
        <_>
          <internalNodes>
            0 -1 9 9.0220170095562935e-03</internalNodes>
          <leafValues>
            -5.4695224761962891e-01 4.7679325938224792e-01</leafValues></_>
        <_>
          <internalNodes>
            0 -1 77 9.0670585632324219e-03</internalNodes>
          <leafValues>
            -4.7882804274559021e-01 3.3567726612091064e-01</leafValues></_>
        <_>
          <internalNodes>
            0 -1 46 -1.5562191605567932e-02</internalNodes>
          <leafValues>
            -8.1335598230361938e-01 2.0204022526741028e-01</leafValues></_>
        <_>
          <internalNodes>
            0 -1 80 -1.2088904157280922e-02</internalNodes>
          <leafValues>
            3.0673602223396301e-01 -5.2870571613311768e-01</leafValues></_>
        <_>
          <internalNodes>
            0 -1 13 5.7077668607234955e-03</internalNodes>
          <leafValues>
            1.7989198863506317e-01 -8.8293302059173584e-01</leafValues></_>
        <_>
          <internalNodes>
            0 -1 79 1.6819080337882042e-03</internalNodes>
          <leafValues>
            -3.3389294147491455e-01 6.1934798955917358e-01</leafValues></_></weakClassifiers></_>
    <!-- stage 8 -->
    <_>
      <maxWeakCount>6</maxWeakCount>
      <stageThreshold>-7.2393095493316650e-01</stageThreshold>
      <weakClassifiers>
        <_>
          <internalNodes>
            0 -1 48 2.8621738310903311e-03</internalNodes>
          <leafValues>
            -5.2494060993194580e-01 5.9574466943740845e-01</leafValues></_>
        <_>
          <internalNodes>
            0 -1 18 -1.7170540522783995e-03</internalNodes>
          <leafValues>
            1.8427555263042450e-01 -7.3075014352798462e-01</leafValues></_>
        <_>
          <internalNodes>
            0 -1 12 -1.6000872850418091e-01</internalNodes>
          <leafValues>
            4.5944511890411377e-01 -3.6641824245452881e-01</leafValues></_>
        <_>
          <internalNodes>
            0 -1 51 1.9553713500499725e-03</internalNodes>
          <leafValues>
            -2.4377270042896271e-01 5.9767311811447144e-01</leafValues></_>
        <_>
          <internalNodes>
            0 -1 22 -4.5231647789478302e-02</internalNodes>
          <leafValues>
            5.5431759357452393e-01 -2.5646328926086426e-01</leafValues></_>
        <_>
          <internalNodes>
            0 -1 36 -8.9543091598898172e-04</internalNodes>
          <leafValues>
            5.7255065441131592e-01 -2.6673701405525208e-01</leafValues></_></weakClassifiers></_>
    <!-- stage 9 -->
    <_>
      <maxWeakCount>6</maxWeakCount>
      <stageThreshold>-9.1534823179244995e-01</stageThreshold>
      <weakClassifiers>
        <_>
          <internalNodes>
            0 -1 4 3.0572701245546341e-02</internalNodes>
          <leafValues>
            -5.9401309490203857e-01 2.1989528834819794e-01</leafValues></_>
        <_>
          <internalNodes>
            0 -1 20 2.0719044841825962e-03</internalNodes>
          <leafValues>
            1.6599483788013458e-01 -7.8288412094116211e-01</leafValues></_>
        <_>
          <internalNodes>
            0 -1 66 4.0109636756824329e-05</internalNodes>
          <leafValues>
            2.3046419024467468e-01 -6.1917734146118164e-01</leafValues></_>
        <_>
          <internalNodes>
            0 -1 61 -1.0006790980696678e-03</internalNodes>
          <leafValues>
            -8.8392347097396851e-01 1.6990360617637634e-01</leafValues></_>
        <_>
          <internalNodes>
            0 -1 76 6.6235964186489582e-04</internalNodes>
          <leafValues>
            -2.3486986756324768e-01 6.7639338970184326e-01</leafValues></_>
        <_>
          <internalNodes>
            0 -1 60 7.9288921551778913e-04</internalNodes>
          <leafValues>
            1.9681365787982941e-01 -7.4842816591262817e-01</leafValues></_></weakClassifiers></_>
    <!-- stage 10 -->
    <_>
      <maxWeakCount>7</maxWeakCount>
      <stageThreshold>-1.1272777318954468e+00</stageThreshold>
      <weakClassifiers>
        <_>
          <internalNodes>
            0 -1 0 1.5626832842826843e-02</internalNodes>
          <leafValues>
            -7.4300253391265869e-01 4.9624059349298477e-02</leafValues></_>
        <_>
          <internalNodes>
            0 -1 59 2.0204284228384495e-03</internalNodes>
          <leafValues>
            -4.7069603204727173e-01 3.5224241018295288e-01</leafValues></_>
        <_>
          <internalNodes>
            0 -1 14 6.2637843191623688e-02</internalNodes>
          <leafValues>
            -2.8082221746444702e-01 5.5459827184677124e-01</leafValues></_>
        <_>
          <internalNodes>
            0 -1 31 1.1354789603501558e-03</internalNodes>
          <leafValues>
            -2.0169755816459656e-01 7.0479625463485718e-01</leafValues></_>
        <_>
          <internalNodes>
            0 -1 32 6.5535446628928185e-04</internalNodes>
          <leafValues>
            -2.4591223895549774e-01 5.8160895109176636e-01</leafValues></_>
        <_>
          <internalNodes>
            0 -1 74 1.9253403879702091e-03</internalNodes>
          <leafValues>
            -7.2811740636825562e-01 2.3619264364242554e-01</leafValues></_>
        <_>
          <internalNodes>
            0 -1 30 -1.8952831160277128e-03</internalNodes>
          <leafValues>
            6.1579608917236328e-01 -2.4886097013950348e-01</leafValues></_></weakClassifiers></_>
    <!-- stage 11 -->
    <_>
      <maxWeakCount>7</maxWeakCount>
      <stageThreshold>-1.0909997224807739e+00</stageThreshold>
      <weakClassifiers>
        <_>
          <internalNodes>
            0 -1 8 -9.6054814755916595e-02</internalNodes>
          <leafValues>
            3.2457496970891953e-02 -7.1144276857376099e-01</leafValues></_>
        <_>
          <internalNodes>
            0 -1 5 1.5642089769244194e-02</internalNodes>
          <leafValues>
            -5.5273663997650146e-01 2.7152308821678162e-01</leafValues></_>
        <_>
          <internalNodes>
            0 -1 43 7.5786579400300980e-03</internalNodes>
          <leafValues>
            -2.1220025420188904e-01 7.5764548778533936e-01</leafValues></_>
        <_>
          <internalNodes>
            0 -1 68 -4.8611899837851524e-03</internalNodes>
          <leafValues>
            -8.9023470878601074e-01 1.8652690947055817e-01</leafValues></_>
        <_>
          <internalNodes>
            0 -1 42 1.5423018485307693e-03</internalNodes>
          <leafValues>
            -6.5467607975006104e-01 2.2828823328018188e-01</leafValues></_>
        <_>
          <internalNodes>
            0 -1 82 2.0614665001630783e-02</internalNodes>
          <leafValues>
            -2.1507990360260010e-01 7.9234135150909424e-01</leafValues></_>
        <_>
          <internalNodes>
            0 -1 40 -1.9893087446689606e-03</internalNodes>
          <leafValues>
            -9.4963628053665161e-01 1.8564468622207642e-01</leafValues></_></weakClassifiers></_>
    <!-- stage 12 -->
    <_>
      <maxWeakCount>7</maxWeakCount>
      <stageThreshold>-1.0774723291397095e+00</stageThreshold>
      <weakClassifiers>
        <_>
          <internalNodes>
            0 -1 84 -2.9288824647665024e-02</internalNodes>
          <leafValues>
            4.4150942564010620e-01 -5.6323778629302979e-01</leafValues></_>
        <_>
          <internalNodes>
            0 -1 1 6.5634856000542641e-03</internalNodes>
          <leafValues>
            -5.0363367795944214e-01 2.7957627177238464e-01</leafValues></_>
        <_>
          <internalNodes>
            0 -1 58 6.1109365196898580e-04</internalNodes>
          <leafValues>
            2.0647737383842468e-01 -7.2184473276138306e-01</leafValues></_>
        <_>
          <internalNodes>
            0 -1 57 -8.2405621651560068e-04</internalNodes>
          <leafValues>
            -8.2826679944992065e-01 1.9709563255310059e-01</leafValues></_>
        <_>
          <internalNodes>
            0 -1 45 6.6941964905709028e-04</internalNodes>
          <leafValues>
            -3.2357922196388245e-01 5.7507121562957764e-01</leafValues></_>
        <_>
          <internalNodes>
            0 -1 50 -6.4015004318207502e-04</internalNodes>
          <leafValues>
            -7.1617287397384644e-01 2.5099626183509827e-01</leafValues></_>
        <_>
          <internalNodes>
            0 -1 49 1.4149660710245371e-03</internalNodes>
          <leafValues>
            -3.4159091114997864e-01 5.3684324026107788e-01</leafValues></_></weakClassifiers></_>
    <!-- stage 13 -->
    <_>
      <maxWeakCount>5</maxWeakCount>
      <stageThreshold>-9.3001413345336914e-01</stageThreshold>
      <weakClassifiers>
        <_>
          <internalNodes>
            0 -1 34 -2.2560707293450832e-03</internalNodes>
          <leafValues>
            2.8301885724067688e-01 -6.0740739107131958e-01</leafValues></_>
        <_>
          <internalNodes>
            0 -1 7 1.2915547005832195e-02</internalNodes>
          <leafValues>
            -5.5340194702148438e-01 3.7544348835945129e-01</leafValues></_>
        <_>
          <internalNodes>
            0 -1 52 2.8835842385888100e-03</internalNodes>
          <leafValues>
            -2.6108691096305847e-01 7.5717824697494507e-01</leafValues></_>
        <_>
          <internalNodes>
            0 -1 27 -2.7859960682690144e-03</internalNodes>
          <leafValues>
            2.8836318850517273e-01 -6.9633352756500244e-01</leafValues></_>
        <_>
          <internalNodes>
            0 -1 75 -9.2793088406324387e-03</internalNodes>
          <leafValues>
            -8.5680645704269409e-01 2.0351892709732056e-01</leafValues></_></weakClassifiers></_>
    <!-- stage 14 -->
    <_>
      <maxWeakCount>4</maxWeakCount>
      <stageThreshold>-5.1880317926406860e-01</stageThreshold>
      <weakClassifiers>
        <_>
          <internalNodes>
            0 -1 28 -1.2116322759538889e-03</internalNodes>
          <leafValues>
            8.6238533258438110e-01 -5.9935116767883301e-01</leafValues></_>
        <_>
          <internalNodes>
            0 -1 65 -3.3830676227807999e-02</internalNodes>
          <leafValues>
            4.1013938188552856e-01 -6.5731441974639893e-01</leafValues></_>
        <_>
          <internalNodes>
            0 -1 64 1.8362209666520357e-03</internalNodes>
          <leafValues>
            -6.0207206010818481e-01 4.9957919120788574e-01</leafValues></_>
        <_>
          <internalNodes>
            0 -1 26 -1.5410173684358597e-02</internalNodes>
          <leafValues>
            -8.2917058467864990e-01 3.4339639544487000e-01</leafValues></_></weakClassifiers></_>
    <!-- stage 15 -->
    <_>
      <maxWeakCount>4</maxWeakCount>
      <stageThreshold>-1.2311083823442459e-01</stageThreshold>
      <weakClassifiers>
        <_>
          <internalNodes>
            0 -1 3 5.0756800919771194e-03</internalNodes>
          <leafValues>
            -7.7212804555892944e-01 6.9151669740676880e-01</leafValues></_>
        <_>
          <internalNodes>
            0 -1 39 5.5472729727625847e-03</internalNodes>
          <leafValues>
            -6.7127341032028198e-01 6.4845615625381470e-01</leafValues></_>
        <_>
          <internalNodes>
            0 -1 25 1.1744676157832146e-02</internalNodes>
          <leafValues>
            5.3775578737258911e-01 -8.2846575975418091e-01</leafValues></_>
        <_>
          <internalNodes>
            0 -1 63 7.4814481195062399e-04</internalNodes>
          <leafValues>
            -5.1813191175460815e-01 8.2902681827545166e-01</leafValues></_></weakClassifiers></_></stages>
  <features>
    <_>
      <rects>
        <_>
          0 0 20 15 -1.</_>
        <_>
          10 0 10 15 2.</_></rects>
      <tilted>0</tilted></_>
    <_>
      <rects>
        <_>
          0 3 12 6 -1.</_>
        <_>
          6 3 6 6 2.</_></rects>
      <tilted>0</tilted></_>
    <_>
      <rects>
        <_>
          0 4 8 12 -1.</_>
        <_>
          4 4 4 12 2.</_></rects>
      <tilted>0</tilted></_>
    <_>
      <rects>
        <_>
          0 6 12 7 -1.</_>
        <_>
          3 6 6 7 2.</_></rects>
      <tilted>0</tilted></_>
    <_>
      <rects>
        <_>
          0 6 8 9 -1.</_>
        <_>
          4 6 4 9 2.</_></rects>
      <tilted>0</tilted></_>
    <_>
      <rects>
        <_>
          0 6 21 6 -1.</_>
        <_>
          7 6 7 6 3.</_></rects>
      <tilted>0</tilted></_>
    <_>
      <rects>
        <_>
          0 6 14 10 -1.</_>
        <_>
          7 6 7 10 2.</_></rects>
      <tilted>0</tilted></_>
    <_>
      <rects>
        <_>
          0 10 21 5 -1.</_>
        <_>
          7 10 7 5 3.</_></rects>
      <tilted>0</tilted></_>
    <_>
      <rects>
        <_>
          1 14 59 6 -1.</_>
        <_>
          1 17 59 3 2.</_></rects>
      <tilted>0</tilted></_>
    <_>
      <rects>
        <_>
          2 8 6 5 -1.</_>
        <_>
          4 8 2 5 3.</_></rects>
      <tilted>0</tilted></_>
    <_>
      <rects>
        <_>
          3 0 23 6 -1.</_>
        <_>
          3 2 23 2 3.</_></rects>
      <tilted>0</tilted></_>
    <_>
      <rects>
        <_>
          3 0 42 8 -1.</_>
        <_>
          3 2 42 4 2.</_></rects>
      <tilted>0</tilted></_>
    <_>
      <rects>
        <_>
          3 12 49 8 -1.</_>
        <_>
          3 16 49 4 2.</_></rects>
      <tilted>0</tilted></_>
    <_>
      <rects>
        <_>
          4 1 12 3 -1.</_>
        <_>
          8 1 4 3 3.</_></rects>
      <tilted>0</tilted></_>
    <_>
      <rects>
        <_>
          4 1 39 6 -1.</_>
        <_>
          4 4 39 3 2.</_></rects>
      <tilted>0</tilted></_>
    <_>
      <rects>
        <_>
          4 3 9 4 -1.</_>
        <_>
          4 5 9 2 2.</_></rects>
      <tilted>0</tilted></_>
    <_>
      <rects>
        <_>
          5 0 17 6 -1.</_>
        <_>
          5 2 17 2 3.</_></rects>
      <tilted>0</tilted></_>
    <_>
      <rects>
        <_>
          7 3 18 5 -1.</_>
        <_>
          13 3 6 5 3.</_></rects>
      <tilted>0</tilted></_>
    <_>
      <rects>
        <_>
          7 4 28 6 -1.</_>
        <_>
          14 4 14 6 2.</_></rects>
      <tilted>0</tilted></_>
    <_>
      <rects>
        <_>
          7 14 21 4 -1.</_>
        <_>
          7 15 21 2 2.</_></rects>
      <tilted>0</tilted></_>
    <_>
      <rects>
        <_>
          9 0 9 5 -1.</_>
        <_>
          12 0 3 5 3.</_></rects>
      <tilted>0</tilted></_>
    <_>
      <rects>
        <_>
          9 0 38 9 -1.</_>
        <_>
          9 3 38 3 3.</_></rects>
      <tilted>0</tilted></_>
    <_>
      <rects>
        <_>
          9 1 29 6 -1.</_>
        <_>
          9 3 29 2 3.</_></rects>
      <tilted>0</tilted></_>
    <_>
      <rects>
        <_>
          9 4 30 6 -1.</_>
        <_>
          19 4 10 6 3.</_></rects>
      <tilted>0</tilted></_>
    <_>
      <rects>
        <_>
          9 4 46 16 -1.</_>
        <_>
          9 8 46 8 2.</_></rects>
      <tilted>0</tilted></_>
    <_>
      <rects>
        <_>
          9 12 18 8 -1.</_>
        <_>
          15 12 6 8 3.</_></rects>
      <tilted>0</tilted></_>
    <_>
      <rects>
        <_>
          10 2 21 5 -1.</_>
        <_>
          17 2 7 5 3.</_></rects>
      <tilted>0</tilted></_>
    <_>
      <rects>
        <_>
          10 4 28 5 -1.</_>
        <_>
          17 4 14 5 2.</_></rects>
      <tilted>0</tilted></_>
    <_>
      <rects>
        <_>
          13 9 4 3 -1.</_>
        <_>
          14 9 2 3 2.</_></rects>
      <tilted>0</tilted></_>
    <_>
      <rects>
        <_>
          15 4 20 5 -1.</_>
        <_>
          20 4 10 5 2.</_></rects>
      <tilted>0</tilted></_>
    <_>
      <rects>
        <_>
          15 7 4 7 -1.</_>
        <_>
          16 7 2 7 2.</_></rects>
      <tilted>0</tilted></_>
    <_>
      <rects>
        <_>
          15 9 3 2 -1.</_>
        <_>
          16 9 1 2 3.</_></rects>
      <tilted>0</tilted></_>
    <_>
      <rects>
        <_>
          16 9 3 2 -1.</_>
        <_>
          17 9 1 2 3.</_></rects>
      <tilted>0</tilted></_>
    <_>
      <rects>
        <_>
          16 14 33 6 -1.</_>
        <_>
          27 14 11 6 3.</_></rects>
      <tilted>0</tilted></_>
    <_>
      <rects>
        <_>
          18 3 6 6 -1.</_>
        <_>
          20 3 2 6 3.</_></rects>
      <tilted>0</tilted></_>
    <_>
      <rects>
        <_>
          18 11 32 9 -1.</_>
        <_>
          26 11 16 9 2.</_></rects>
      <tilted>0</tilted></_>
    <_>
      <rects>
        <_>
          19 9 4 2 -1.</_>
        <_>
          20 9 2 2 2.</_></rects>
      <tilted>0</tilted></_>
    <_>
      <rects>
        <_>
          20 2 40 18 -1.</_>
        <_>
          30 2 20 18 2.</_></rects>
      <tilted>0</tilted></_>
    <_>
      <rects>
        <_>
          21 2 22 17 -1.</_>
        <_>
          32 2 11 17 2.</_></rects>
      <tilted>0</tilted></_>
    <_>
      <rects>
        <_>
          22 7 30 1 -1.</_>
        <_>
          32 7 10 1 3.</_></rects>
      <tilted>0</tilted></_>
    <_>
      <rects>
        <_>
          22 19 12 1 -1.</_>
        <_>
          26 19 4 1 3.</_></rects>
      <tilted>0</tilted></_>
    <_>
      <rects>
        <_>
          23 10 3 2 -1.</_>
        <_>
          24 10 1 2 3.</_></rects>
      <tilted>0</tilted></_>
    <_>
      <rects>
        <_>
          26 5 20 4 -1.</_>
        <_>
          31 5 10 4 2.</_></rects>
      <tilted>0</tilted></_>
    <_>
      <rects>
        <_>
          26 13 10 3 -1.</_>
        <_>
          26 14 10 1 3.</_></rects>
      <tilted>0</tilted></_>
    <_>
      <rects>
        <_>
          26 14 27 6 -1.</_>
        <_>
          26 17 27 3 2.</_></rects>
      <tilted>0</tilted></_>
    <_>
      <rects>
        <_>
          27 9 3 2 -1.</_>
        <_>
          28 9 1 2 3.</_></rects>
      <tilted>0</tilted></_>
    <_>
      <rects>
        <_>
          28 1 14 19 -1.</_>
        <_>
          35 1 7 19 2.</_></rects>
      <tilted>0</tilted></_>
    <_>
      <rects>
        <_>
          28 2 32 6 -1.</_>
        <_>
          28 2 16 3 2.</_>
        <_>
          44 5 16 3 2.</_></rects>
      <tilted>0</tilted></_>
    <_>
      <rects>
        <_>
          28 8 3 5 -1.</_>
        <_>
          29 8 1 5 3.</_></rects>
      <tilted>0</tilted></_>
    <_>
      <rects>
        <_>
          28 9 3 5 -1.</_>
        <_>
          29 9 1 5 3.</_></rects>
      <tilted>0</tilted></_>
    <_>
      <rects>
        <_>
          28 18 8 2 -1.</_>
        <_>
          30 18 4 2 2.</_></rects>
      <tilted>0</tilted></_>
    <_>
      <rects>
        <_>
          29 9 3 6 -1.</_>
        <_>
          30 9 1 6 3.</_></rects>
      <tilted>0</tilted></_>
    <_>
      <rects>
        <_>
          29 13 3 3 -1.</_>
        <_>
          30 14 1 1 9.</_></rects>
      <tilted>0</tilted></_>
    <_>
      <rects>
        <_>
          30 5 6 4 -1.</_>
        <_>
          30 6 6 2 2.</_></rects>
      <tilted>0</tilted></_>
    <_>
      <rects>
        <_>
          30 10 3 2 -1.</_>
        <_>
          31 10 1 2 3.</_></rects>
      <tilted>0</tilted></_>
    <_>
      <rects>
        <_>
          30 10 21 9 -1.</_>
        <_>
          30 13 21 3 3.</_></rects>
      <tilted>0</tilted></_>
    <_>
      <rects>
        <_>
          30 11 30 3 -1.</_>
        <_>
          40 11 10 3 3.</_></rects>
      <tilted>0</tilted></_>
    <_>
      <rects>
        <_>
          31 4 6 2 -1.</_>
        <_>
          33 4 2 2 3.</_></rects>
      <tilted>0</tilted></_>
    <_>
      <rects>
        <_>
          31 4 6 3 -1.</_>
        <_>
          33 4 2 3 3.</_></rects>
      <tilted>0</tilted></_>
    <_>
      <rects>
        <_>
          31 6 9 3 -1.</_>
        <_>
          31 7 9 1 3.</_></rects>
      <tilted>0</tilted></_>
    <_>
      <rects>
        <_>
          32 4 9 1 -1.</_>
        <_>
          35 4 3 1 3.</_></rects>
      <tilted>0</tilted></_>
    <_>
      <rects>
        <_>
          33 4 9 1 -1.</_>
        <_>
          36 4 3 1 3.</_></rects>
      <tilted>0</tilted></_>
    <_>
      <rects>
        <_>
          33 6 16 8 -1.</_>
        <_>
          33 6 8 4 2.</_>
        <_>
          41 10 8 4 2.</_></rects>
      <tilted>0</tilted></_>
    <_>
      <rects>
        <_>
          35 14 2 1 -1.</_>
        <_>
          35 14 1 1 2.</_></rects>
      <tilted>1</tilted></_>
    <_>
      <rects>
        <_>
          37 9 12 3 -1.</_>
        <_>
          40 9 6 3 2.</_></rects>
      <tilted>0</tilted></_>
    <_>
      <rects>
        <_>
          38 5 22 15 -1.</_>
        <_>
          49 5 11 15 2.</_></rects>
      <tilted>0</tilted></_>
    <_>
      <rects>
        <_>
          40 5 12 5 -1.</_>
        <_>
          44 5 4 5 3.</_></rects>
      <tilted>0</tilted></_>
    <_>
      <rects>
        <_>
          40 9 3 5 -1.</_>
        <_>
          41 9 1 5 3.</_></rects>
      <tilted>0</tilted></_>
    <_>
      <rects>
        <_>
          40 13 12 7 -1.</_>
        <_>
          43 13 6 7 2.</_></rects>
      <tilted>0</tilted></_>
    <_>
      <rects>
        <_>
          41 5 15 15 -1.</_>
        <_>
          41 10 15 5 3.</_></rects>
      <tilted>0</tilted></_>
    <_>
      <rects>
        <_>
          41 6 3 10 -1.</_>
        <_>
          42 6 1 10 3.</_></rects>
      <tilted>0</tilted></_>
    <_>
      <rects>
        <_>
          41 12 2 8 -1.</_>
        <_>
          41 16 2 4 2.</_></rects>
      <tilted>0</tilted></_>
    <_>
      <rects>
        <_>
          42 3 12 16 -1.</_>
        <_>
          46 3 4 16 3.</_></rects>
      <tilted>0</tilted></_>
    <_>
      <rects>
        <_>
          42 6 18 10 -1.</_>
        <_>
          42 6 9 5 2.</_>
        <_>
          51 11 9 5 2.</_></rects>
      <tilted>0</tilted></_>
    <_>
      <rects>
        <_>
          43 6 10 6 -1.</_>
        <_>
          43 9 10 3 2.</_></rects>
      <tilted>0</tilted></_>
    <_>
      <rects>
        <_>
          44 1 8 11 -1.</_>
        <_>
          48 1 4 11 2.</_></rects>
      <tilted>0</tilted></_>
    <_>
      <rects>
        <_>
          44 10 3 1 -1.</_>
        <_>
          45 10 1 1 3.</_></rects>
      <tilted>0</tilted></_>
    <_>
      <rects>
        <_>
          44 14 16 6 -1.</_>
        <_>
          44 14 8 3 2.</_>
        <_>
          52 17 8 3 2.</_></rects>
      <tilted>0</tilted></_>
    <_>
      <rects>
        <_>
          47 13 8 6 -1.</_>
        <_>
          51 13 4 6 2.</_></rects>
      <tilted>0</tilted></_>
    <_>
      <rects>
        <_>
          49 7 3 5 -1.</_>
        <_>
          50 7 1 5 3.</_></rects>
      <tilted>0</tilted></_>
    <_>
      <rects>
        <_>
          50 9 10 11 -1.</_>
        <_>
          55 9 5 11 2.</_></rects>
      <tilted>0</tilted></_>
    <_>
      <rects>
        <_>
          50 10 10 8 -1.</_>
        <_>
          55 10 5 8 2.</_></rects>
      <tilted>0</tilted></_>
    <_>
      <rects>
        <_>
          53 3 6 12 -1.</_>
        <_>
          55 3 2 12 3.</_></rects>
      <tilted>0</tilted></_>
    <_>
      <rects>
        <_>
          53 5 6 9 -1.</_>
        <_>
          55 5 2 9 3.</_></rects>
      <tilted>0</tilted></_>
    <_>
      <rects>
        <_>
          54 3 6 15 -1.</_>
        <_>
          57 3 3 15 2.</_></rects>
      <tilted>0</tilted></_>
    <_>
      <rects>
        <_>
          54 8 4 5 -1.</_>
        <_>
          55 8 2 5 2.</_></rects>
      <tilted>0</tilted></_>
    <_>
      <rects>
        <_>
          54 8 6 8 -1.</_>
        <_>
          57 8 3 8 2.</_></rects>
      <tilted>0</tilted></_></features></cascade>
</opencv_storage>
