<?xml version="1.0"?>
<opencv_storage>
<cascade>
  <stageType>BOOST</stageType>
  <featureType>HAAR</featureType>
  <height>20</height>
  <width>60</width>
  <stageParams>
    <boostType>GAB</boostType>
    <minHitRate>9.9000000953674316e-01</minHitRate>
    <maxFalseAlarm>4.0000000596046448e-01</maxFalseAlarm>
    <weightTrimRate>9.4999999999999996e-01</weightTrimRate>
    <maxDepth>1</maxDepth>
    <maxWeakCount>100</maxWeakCount></stageParams>
  <featureParams>
    <maxCatCount>0</maxCatCount>
    <featSize>1</featSize>
    <mode>ALL</mode></featureParams>
  <stageNum>14</stageNum>
  <stages>
    <!-- stage 0 -->
    <_>
      <maxWeakCount>3</maxWeakCount>
      <stageThreshold>-9.1699224710464478e-01</stageThreshold>
      <weakClassifiers>
        <_>
          <internalNodes>
            0 -1 49 5.0967603921890259e-02</internalNodes>
          <leafValues>
            -7.9584121704101563e-01 6.9767439365386963e-01</leafValues></_>
        <_>
          <internalNodes>
            0 -1 28 -2.5636866688728333e-02</internalNodes>
          <leafValues>
            7.3975360393524170e-01 -6.6558992862701416e-01</leafValues></_>
        <_>
          <internalNodes>
            0 -1 82 8.5690105333924294e-03</internalNodes>
          <leafValues>
            -7.8680950403213501e-01 5.4443883895874023e-01</leafValues></_></weakClassifiers></_>
    <!-- stage 1 -->
    <_>
      <maxWeakCount>5</maxWeakCount>
      <stageThreshold>-5.9515237808227539e-01</stageThreshold>
      <weakClassifiers>
        <_>
          <internalNodes>
            0 -1 0 -2.3605415597558022e-02</internalNodes>
          <leafValues>
            5.8974361419677734e-01 -7.2110092639923096e-01</leafValues></_>
        <_>
          <internalNodes>
            0 -1 45 -5.8427814394235611e-02</internalNodes>
          <leafValues>
            6.8207609653472900e-01 -5.7967162132263184e-01</leafValues></_>
        <_>
          <internalNodes>
            0 -1 15 -4.9826770555227995e-04</internalNodes>
          <leafValues>
            3.9195203781127930e-01 -9.4828218221664429e-01</leafValues></_>
        <_>
          <internalNodes>
            0 -1 42 -1.2526291422545910e-02</internalNodes>
          <leafValues>
            7.9581493139266968e-01 -4.2630308866500854e-01</leafValues></_>
        <_>
          <internalNodes>
            0 -1 25 -8.0405790358781815e-03</internalNodes>
          <leafValues>
            8.1845778226852417e-01 -3.3608195185661316e-01</leafValues></_></weakClassifiers></_>
    <!-- stage 2 -->
    <_>
      <maxWeakCount>6</maxWeakCount>
      <stageThreshold>-1.2153409719467163e+00</stageThreshold>
      <weakClassifiers>
        <_>
          <internalNodes>
            0 -1 7 1.3348944485187531e-02</internalNodes>
          <leafValues>
            -7.2222220897674561e-01 5.5279505252838135e-01</leafValues></_>
        <_>
          <internalNodes>
            0 -1 62 6.2707262113690376e-03</internalNodes>
          <leafValues>
            -6.5349650382995605e-01 4.2879483103752136e-01</leafValues></_>
        <_>
          <internalNodes>
            0 -1 87 2.2094743326306343e-03</internalNodes>
          <leafValues>
            -3.2511135935783386e-01 6.9878977537155151e-01</leafValues></_>
        <_>
          <internalNodes>
            0 -1 81 -2.8660893440246582e-03</internalNodes>
          <leafValues>
            3.9707002043724060e-01 -5.7721936702728271e-01</leafValues></_>
        <_>
          <internalNodes>
            0 -1 34 -1.7711663246154785e-01</internalNodes>
          <leafValues>
            8.3425778150558472e-01 -3.5829913616180420e-01</leafValues></_>
        <_>
          <internalNodes>
            0 -1 79 2.7079577557742596e-03</internalNodes>
          <leafValues>
            -5.8654457330703735e-01 4.4671824574470520e-01</leafValues></_></weakClassifiers></_>
    <!-- stage 3 -->
    <_>
      <maxWeakCount>6</maxWeakCount>
      <stageThreshold>-1.0428421497344971e+00</stageThreshold>
      <weakClassifiers>
        <_>
          <internalNodes>
            0 -1 18 -7.8189283609390259e-02</internalNodes>
          <leafValues>
            6.9369369745254517e-01 -6.4067798852920532e-01</leafValues></_>
        <_>
          <internalNodes>
            0 -1 88 -1.0478680953383446e-02</internalNodes>
          <leafValues>
            7.6156061887741089e-01 -4.1497629880905151e-01</leafValues></_>
        <_>
          <internalNodes>
            0 -1 48 6.1844114679843187e-04</internalNodes>
          <leafValues>
            -3.4875500202178955e-01 6.2767916917800903e-01</leafValues></_>
        <_>
          <internalNodes>
            0 -1 60 4.7386833466589451e-04</internalNodes>
          <leafValues>
            -6.5678024291992188e-01 3.6082115769386292e-01</leafValues></_>
        <_>
          <internalNodes>
            0 -1 46 5.8263458777219057e-04</internalNodes>
          <leafValues>
            -2.9543948173522949e-01 7.8535664081573486e-01</leafValues></_>
        <_>
          <internalNodes>
            0 -1 37 1.5862839296460152e-02</internalNodes>
          <leafValues>
            3.1542262434959412e-01 -7.8461062908172607e-01</leafValues></_></weakClassifiers></_>
    <!-- stage 4 -->
    <_>
      <maxWeakCount>7</maxWeakCount>
      <stageThreshold>-1.4043281078338623e+00</stageThreshold>
      <weakClassifiers>
        <_>
          <internalNodes>
            0 -1 4 2.5487838312983513e-02</internalNodes>
          <leafValues>
            -6.9491523504257202e-01 4.0000000596046448e-01</leafValues></_>
        <_>
          <internalNodes>
            0 -1 29 -1.0916251689195633e-02</internalNodes>
          <leafValues>
            -8.6399543285369873e-01 1.7446446418762207e-01</leafValues></_>
        <_>
          <internalNodes>
            0 -1 21 -3.7319599650800228e-03</internalNodes>
          <leafValues>
            6.2221503257751465e-01 -3.7431392073631287e-01</leafValues></_>
        <_>
          <internalNodes>
            0 -1 39 -5.0777355208992958e-03</internalNodes>
          <leafValues>
            -8.8500189781188965e-01 2.5148001313209534e-01</leafValues></_>
        <_>
          <internalNodes>
            0 -1 67 -1.0539203649386764e-03</internalNodes>
          <leafValues>
            2.9420435428619385e-01 -6.6236031055450439e-01</leafValues></_>
        <_>
          <internalNodes>
            0 -1 12 -7.8538199886679649e-03</internalNodes>
          <leafValues>
            6.9574677944183350e-01 -3.4120294451713562e-01</leafValues></_>
        <_>
          <internalNodes>
            0 -1 61 -1.7976325470954180e-03</internalNodes>
          <leafValues>
            -9.3096679449081421e-01 2.4251981079578400e-01</leafValues></_></weakClassifiers></_>
    <!-- stage 5 -->
    <_>
      <maxWeakCount>7</maxWeakCount>
      <stageThreshold>-1.4507801532745361e+00</stageThreshold>
      <weakClassifiers>
        <_>
          <internalNodes>
            0 -1 86 4.0001538582146168e-03</internalNodes>
          <leafValues>
            -6.2020903825759888e-01 4.3307086825370789e-01</leafValues></_>
        <_>
          <internalNodes>
            0 -1 3 6.7959256470203400e-02</internalNodes>
          <leafValues>
            -4.2151662707328796e-01 5.0995737314224243e-01</leafValues></_>
        <_>
          <internalNodes>
            0 -1 74 1.1028381064534187e-02</internalNodes>
          <leafValues>
            -6.3415300846099854e-01 3.0801421403884888e-01</leafValues></_>
        <_>
          <internalNodes>
            0 -1 48 5.2462698658928275e-04</internalNodes>
          <leafValues>
            -3.3856567740440369e-01 5.6530308723449707e-01</leafValues></_>
        <_>
          <internalNodes>
            0 -1 14 2.0464593544602394e-03</internalNodes>
          <leafValues>
            2.7857151627540588e-01 -8.9200574159622192e-01</leafValues></_>
        <_>
          <internalNodes>
            0 -1 17 -8.0501689808443189e-04</internalNodes>
          <leafValues>
            5.3456681966781616e-01 -3.7195917963981628e-01</leafValues></_>
        <_>
          <internalNodes>
            0 -1 22 -2.5415170937776566e-02</internalNodes>
          <leafValues>
            6.5705186128616333e-01 -3.2668802142143250e-01</leafValues></_></weakClassifiers></_>
    <!-- stage 6 -->
    <_>
      <maxWeakCount>8</maxWeakCount>
      <stageThreshold>-1.0550627708435059e+00</stageThreshold>
      <weakClassifiers>
        <_>
          <internalNodes>
            0 -1 64 3.1486675143241882e-02</internalNodes>
          <leafValues>
            -7.4782609939575195e-01 1.7842324078083038e-01</leafValues></_>
        <_>
          <internalNodes>
            0 -1 26 9.4273552298545837e-02</internalNodes>
          <leafValues>
            1.1701014637947083e-01 -9.2087244987487793e-01</leafValues></_>
        <_>
          <internalNodes>
            0 -1 36 7.6881935819983482e-04</internalNodes>
          <leafValues>
            -2.8573668003082275e-01 6.8552035093307495e-01</leafValues></_>
        <_>
          <internalNodes>
            0 -1 52 3.5441445652395487e-04</internalNodes>
          <leafValues>
            2.2504833340644836e-01 -8.7402558326721191e-01</leafValues></_>
        <_>
          <internalNodes>
            0 -1 35 -1.1125861201435328e-03</internalNodes>
          <leafValues>
            6.9408118724822998e-01 -3.0677834153175354e-01</leafValues></_>
        <_>
          <internalNodes>
            0 -1 44 3.1052697449922562e-03</internalNodes>
          <leafValues>
            2.9907041788101196e-01 -6.4825344085693359e-01</leafValues></_>
        <_>
          <internalNodes>
            0 -1 47 -1.4764785766601563e-02</internalNodes>
          <leafValues>
            -8.2906794548034668e-01 2.2517237067222595e-01</leafValues></_>
        <_>
          <internalNodes>
            0 -1 58 2.2289332002401352e-02</internalNodes>
          <leafValues>
            -5.7706230878829956e-01 3.6630085110664368e-01</leafValues></_></weakClassifiers></_>
    <!-- stage 7 -->
    <_>
      <maxWeakCount>6</maxWeakCount>
      <stageThreshold>-8.6897784471511841e-01</stageThreshold>
      <weakClassifiers>
        <_>
          <internalNodes>
            0 -1 63 2.8437215834856033e-02</internalNodes>
          <leafValues>
            -7.6958525180816650e-01 1.2359550595283508e-01</leafValues></_>
        <_>
          <internalNodes>
            0 -1 53 3.1602398958057165e-03</internalNodes>
          <leafValues>
            -3.2916322350502014e-01 7.3567086458206177e-01</leafValues></_>
        <_>
          <internalNodes>
            0 -1 16 -7.6659943442791700e-04</internalNodes>
          <leafValues>
            2.9323303699493408e-01 -6.8035537004470825e-01</leafValues></_>
        <_>
          <internalNodes>
            0 -1 24 3.3196131698787212e-03</internalNodes>
          <leafValues>
            2.1503609418869019e-01 -7.4711757898330688e-01</leafValues></_>
        <_>
          <internalNodes>
            0 -1 23 -1.1103255383204669e-04</internalNodes>
          <leafValues>
            -8.1000125408172607e-01 2.1431095898151398e-01</leafValues></_>
        <_>
          <internalNodes>
            0 -1 2 3.0184581875801086e-02</internalNodes>
          <leafValues>
            -3.7658250331878662e-01 4.6934425830841064e-01</leafValues></_></weakClassifiers></_>
    <!-- stage 8 -->
    <_>
      <maxWeakCount>9</maxWeakCount>
      <stageThreshold>-1.1533399820327759e+00</stageThreshold>
      <weakClassifiers>
        <_>
          <internalNodes>
            0 -1 57 2.4520754814147949e-03</internalNodes>
          <leafValues>
            -7.1115976572036743e-01 9.8360657691955566e-02</leafValues></_>
        <_>
          <internalNodes>
            0 -1 72 -8.3069619722664356e-04</internalNodes>
          <leafValues>
            1.5486806631088257e-01 -7.2200328111648560e-01</leafValues></_>
        <_>
          <internalNodes>
            0 -1 19 -2.2828794317319989e-04</internalNodes>
          <leafValues>
            -8.4954625368118286e-01 1.5809932351112366e-01</leafValues></_>
        <_>
          <internalNodes>
            0 -1 66 7.9205777728930116e-04</internalNodes>
          <leafValues>
            -3.2588082551956177e-01 5.5165940523147583e-01</leafValues></_>
        <_>
          <internalNodes>
            0 -1 5 1.3594467600341886e-04</internalNodes>
          <leafValues>
            2.3708473145961761e-01 -7.8228747844696045e-01</leafValues></_>
        <_>
          <internalNodes>
            0 -1 1 2.4876096285879612e-03</internalNodes>
          <leafValues>
            -4.2842972278594971e-01 4.2545956373214722e-01</leafValues></_>
        <_>
          <internalNodes>
            0 -1 76 2.8770165517926216e-03</internalNodes>
          <leafValues>
            1.9722980260848999e-01 -8.8486862182617188e-01</leafValues></_>
        <_>
          <internalNodes>
            0 -1 73 -1.1365096084773540e-02</internalNodes>
          <leafValues>
            -9.0576279163360596e-01 1.4796483516693115e-01</leafValues></_>
        <_>
          <internalNodes>
            0 -1 8 7.5387656688690186e-03</internalNodes>
          <leafValues>
            -3.1120732426643372e-01 6.7723232507705688e-01</leafValues></_></weakClassifiers></_>
    <!-- stage 9 -->
    <_>
      <maxWeakCount>7</maxWeakCount>
      <stageThreshold>-1.0027359724044800e+00</stageThreshold>
      <weakClassifiers>
        <_>
          <internalNodes>
            0 -1 71 -2.4189334362745285e-03</internalNodes>
          <leafValues>
            7.7419352531433105e-01 -5.4616588354110718e-01</leafValues></_>
        <_>
          <internalNodes>
            0 -1 80 -1.8507663626223803e-03</internalNodes>
          <leafValues>
            6.1015158891677856e-01 -4.0943297743797302e-01</leafValues></_>
        <_>
          <internalNodes>
            0 -1 13 1.2879054993391037e-03</internalNodes>
          <leafValues>
            2.6841509342193604e-01 -8.6220192909240723e-01</leafValues></_>
        <_>
          <internalNodes>
            0 -1 68 -1.5290945302695036e-03</internalNodes>
          <leafValues>
            3.2992699742317200e-01 -5.6785857677459717e-01</leafValues></_>
        <_>
          <internalNodes>
            0 -1 10 -5.6216428056359291e-03</internalNodes>
          <leafValues>
            4.9751961231231689e-01 -4.0403795242309570e-01</leafValues></_>
        <_>
          <internalNodes>
            0 -1 85 -5.8197602629661560e-03</internalNodes>
          <leafValues>
            4.7462996840476990e-01 -3.8612315058708191e-01</leafValues></_>
        <_>
          <internalNodes>
            0 -1 50 -2.6842276565730572e-04</internalNodes>
          <leafValues>
            -8.8793778419494629e-01 1.8171438574790955e-01</leafValues></_></weakClassifiers></_>
    <!-- stage 10 -->
    <_>
      <maxWeakCount>7</maxWeakCount>
      <stageThreshold>-1.2673853635787964e+00</stageThreshold>
      <weakClassifiers>
        <_>
          <internalNodes>
            0 -1 59 9.0714514954015613e-04</internalNodes>
          <leafValues>
            -6.0138648748397827e-01 3.7096774578094482e-01</leafValues></_>
        <_>
          <internalNodes>
            0 -1 6 5.4285963997244835e-03</internalNodes>
          <leafValues>
            -4.6830743551254272e-01 3.8855913281440735e-01</leafValues></_>
        <_>
          <internalNodes>
            0 -1 55 1.6887355595827103e-03</internalNodes>
          <leafValues>
            2.1062530577182770e-01 -9.1516190767288208e-01</leafValues></_>
        <_>
          <internalNodes>
            0 -1 51 -1.4189446344971657e-02</internalNodes>
          <leafValues>
            3.7974110245704651e-01 -4.4663888216018677e-01</leafValues></_>
        <_>
          <internalNodes>
            0 -1 70 -1.0575503110885620e-03</internalNodes>
          <leafValues>
            2.7546992897987366e-01 -7.0994740724563599e-01</leafValues></_>
        <_>
          <internalNodes>
            0 -1 5 -1.7297621525358409e-04</internalNodes>
          <leafValues>
            -7.8642779588699341e-01 2.1369183063507080e-01</leafValues></_>
        <_>
          <internalNodes>
            0 -1 11 2.4823399726301432e-03</internalNodes>
          <leafValues>
            -3.2228887081146240e-01 6.5843957662582397e-01</leafValues></_></weakClassifiers></_>
    <!-- stage 11 -->
    <_>
      <maxWeakCount>6</maxWeakCount>
      <stageThreshold>-8.2645523548126221e-01</stageThreshold>
      <weakClassifiers>
        <_>
          <internalNodes>
            0 -1 83 1.1694043641909957e-03</internalNodes>
          <leafValues>
            -6.1199295520782471e-01 3.4328359365463257e-01</leafValues></_>
        <_>
          <internalNodes>
            0 -1 32 -4.6151377260684967e-02</internalNodes>
          <leafValues>
            -8.4704238176345825e-01 1.4553804695606232e-01</leafValues></_>
        <_>
          <internalNodes>
            0 -1 69 -5.2736193174496293e-04</internalNodes>
          <leafValues>
            2.9126596450805664e-01 -5.1855665445327759e-01</leafValues></_>
        <_>
          <internalNodes>
            0 -1 84 -6.2357308343052864e-03</internalNodes>
          <leafValues>
            4.3823322653770447e-01 -3.8174799084663391e-01</leafValues></_>
        <_>
          <internalNodes>
            0 -1 40 5.5453192908316851e-04</internalNodes>
          <leafValues>
            2.4117191135883331e-01 -7.6016527414321899e-01</leafValues></_>
        <_>
          <internalNodes>
            0 -1 38 -5.2049169316887856e-03</internalNodes>
          <leafValues>
            6.0952311754226685e-01 -3.2933428883552551e-01</leafValues></_></weakClassifiers></_>
    <!-- stage 12 -->
    <_>
      <maxWeakCount>7</maxWeakCount>
      <stageThreshold>-8.4124135971069336e-01</stageThreshold>
      <weakClassifiers>
        <_>
          <internalNodes>
            0 -1 43 6.2443404458463192e-03</internalNodes>
          <leafValues>
            -5.3067487478256226e-01 9.1836732625961304e-01</leafValues></_>
        <_>
          <internalNodes>
            0 -1 31 2.1148219704627991e-02</internalNodes>
          <leafValues>
            1.9342944025993347e-01 -7.0727616548538208e-01</leafValues></_>
        <_>
          <internalNodes>
            0 -1 41 -1.0525181889533997e-02</internalNodes>
          <leafValues>
            -8.2284474372863770e-01 1.9969038665294647e-01</leafValues></_>
        <_>
          <internalNodes>
            0 -1 33 1.0768555803224444e-03</internalNodes>
          <leafValues>
            2.1277193725109100e-01 -7.9741364717483521e-01</leafValues></_>
        <_>
          <internalNodes>
            0 -1 54 1.4889170415699482e-03</internalNodes>
          <leafValues>
            -2.5108048319816589e-01 7.0001268386840820e-01</leafValues></_>
        <_>
          <internalNodes>
            0 -1 78 5.3022528300061822e-04</internalNodes>
          <leafValues>
            2.7669212222099304e-01 -7.4344837665557861e-01</leafValues></_>
        <_>
          <internalNodes>
            0 -1 89 6.4887106418609619e-03</internalNodes>
          <leafValues>
            1.4951248466968536e-01 -9.4785284996032715e-01</leafValues></_></weakClassifiers></_>
    <!-- stage 13 -->
    <_>
      <maxWeakCount>8</maxWeakCount>
      <stageThreshold>-8.8512289524078369e-01</stageThreshold>
      <weakClassifiers>
        <_>
          <internalNodes>
            0 -1 65 -6.4397491514682770e-03</internalNodes>
          <leafValues>
            4.3195265531539917e-01 -7.0300751924514771e-01</leafValues></_>
        <_>
          <internalNodes>
            0 -1 9 1.1896365322172642e-02</internalNodes>
          <leafValues>
            -3.7362289428710938e-01 6.5785074234008789e-01</leafValues></_>
        <_>
          <internalNodes>
            0 -1 75 1.0588469449430704e-03</internalNodes>
          <leafValues>
            -7.2890985012054443e-01 3.1827443838119507e-01</leafValues></_>
        <_>
          <internalNodes>
            0 -1 20 6.4453920349478722e-03</internalNodes>
          <leafValues>
            -3.1679916381835938e-01 6.9387960433959961e-01</leafValues></_>
        <_>
          <internalNodes>
            0 -1 27 1.0224645957350731e-02</internalNodes>
          <leafValues>
            -3.1320163607597351e-01 6.9301766157150269e-01</leafValues></_>
        <_>
          <internalNodes>
            0 -1 56 -7.3312799213454127e-04</internalNodes>
          <leafValues>
            -7.9099118709564209e-01 3.2341149449348450e-01</leafValues></_>
        <_>
          <internalNodes>
            0 -1 30 4.8786064144223928e-04</internalNodes>
          <leafValues>
            -3.1252056360244751e-01 8.2345348596572876e-01</leafValues></_>
        <_>
          <internalNodes>
            0 -1 77 -3.7496876902878284e-03</internalNodes>
          <leafValues>
            5.1123684644699097e-01 -4.9816569685935974e-01</leafValues></_></weakClassifiers></_></stages>
  <features>
    <_>
      <rects>
        <_>
          0 0 20 6 -1.</_>
        <_>
          0 2 20 2 3.</_></rects>
      <tilted>0</tilted></_>
    <_>
      <rects>
        <_>
          0 3 12 4 -1.</_>
        <_>
          0 3 6 2 2.</_>
        <_>
          6 5 6 2 2.</_></rects>
      <tilted>0</tilted></_>
    <_>
      <rects>
        <_>
          0 3 18 15 -1.</_>
        <_>
          9 3 9 15 2.</_></rects>
      <tilted>0</tilted></_>
    <_>
      <rects>
        <_>
          0 3 44 6 -1.</_>
        <_>
          0 6 44 3 2.</_></rects>
      <tilted>0</tilted></_>
    <_>
      <rects>
        <_>
          0 6 10 9 -1.</_>
        <_>
          5 6 5 9 2.</_></rects>
      <tilted>0</tilted></_>
    <_>
      <rects>
        <_>
          0 8 1 3 -1.</_>
        <_>
          0 9 1 1 3.</_></rects>
      <tilted>0</tilted></_>
    <_>
      <rects>
        <_>
          0 11 20 2 -1.</_>
        <_>
          5 11 10 2 2.</_></rects>
      <tilted>0</tilted></_>
    <_>
      <rects>
        <_>
          1 8 8 8 -1.</_>
        <_>
          5 8 4 8 2.</_></rects>
      <tilted>0</tilted></_>
    <_>
      <rects>
        <_>
          2 8 6 6 -1.</_>
        <_>
          4 8 2 6 3.</_></rects>
      <tilted>0</tilted></_>
    <_>
      <rects>
        <_>
          3 6 4 12 -1.</_>
        <_>
          5 6 2 12 2.</_></rects>
      <tilted>0</tilted></_>
    <_>
      <rects>
        <_>
          6 14 17 4 -1.</_>
        <_>
          6 15 17 2 2.</_></rects>
      <tilted>0</tilted></_>
    <_>
      <rects>
        <_>
          7 7 14 2 -1.</_>
        <_>
          7 7 7 1 2.</_>
        <_>
          14 8 7 1 2.</_></rects>
      <tilted>0</tilted></_>
    <_>
      <rects>
        <_>
          7 15 21 4 -1.</_>
        <_>
          7 16 21 2 2.</_></rects>
      <tilted>0</tilted></_>
    <_>
      <rects>
        <_>
          8 2 9 2 -1.</_>
        <_>
          11 2 3 2 3.</_></rects>
      <tilted>0</tilted></_>
    <_>
      <rects>
        <_>
          8 3 12 2 -1.</_>
        <_>
          12 3 4 2 3.</_></rects>
      <tilted>0</tilted></_>
    <_>
      <rects>
        <_>
          8 4 28 7 -1.</_>
        <_>
          15 4 14 7 2.</_></rects>
      <tilted>0</tilted></_>
    <_>
      <rects>
        <_>
          8 5 24 3 -1.</_>
        <_>
          14 5 12 3 2.</_></rects>
      <tilted>0</tilted></_>
    <_>
      <rects>
        <_>
          8 9 4 5 -1.</_>
        <_>
          9 9 2 5 2.</_></rects>
      <tilted>0</tilted></_>
    <_>
      <rects>
        <_>
          9 1 38 6 -1.</_>
        <_>
          9 3 38 2 3.</_></rects>
      <tilted>0</tilted></_>
    <_>
      <rects>
        <_>
          9 2 4 1 -1.</_>
        <_>
          10 2 2 1 2.</_></rects>
      <tilted>0</tilted></_>
    <_>
      <rects>
        <_>
          10 13 3 4 -1.</_>
        <_>
          10 13 3 2 2.</_></rects>
      <tilted>1</tilted></_>
    <_>
      <rects>
        <_>
          10 14 14 3 -1.</_>
        <_>
          10 15 14 1 3.</_></rects>
      <tilted>0</tilted></_>
    <_>
      <rects>
        <_>
          11 0 13 4 -1.</_>
        <_>
          11 2 13 2 2.</_></rects>
      <tilted>0</tilted></_>
    <_>
      <rects>
        <_>
          11 2 2 1 -1.</_>
        <_>
          12 2 1 1 2.</_></rects>
      <tilted>0</tilted></_>
    <_>
      <rects>
        <_>
          11 7 32 7 -1.</_>
        <_>
          19 7 16 7 2.</_></rects>
      <tilted>0</tilted></_>
    <_>
      <rects>
        <_>
          12 4 24 3 -1.</_>
        <_>
          12 5 24 1 3.</_></rects>
      <tilted>0</tilted></_>
    <_>
      <rects>
        <_>
          12 6 42 12 -1.</_>
        <_>
          33 6 21 12 2.</_></rects>
      <tilted>0</tilted></_>
    <_>
      <rects>
        <_>
          12 10 10 6 -1.</_>
        <_>
          12 12 10 2 3.</_></rects>
      <tilted>0</tilted></_>
    <_>
      <rects>
        <_>
          13 1 32 6 -1.</_>
        <_>
          13 3 32 2 3.</_></rects>
      <tilted>0</tilted></_>
    <_>
      <rects>
        <_>
          14 2 32 16 -1.</_>
        <_>
          30 2 16 16 2.</_></rects>
      <tilted>0</tilted></_>
    <_>
      <rects>
        <_>
          15 9 2 2 -1.</_>
        <_>
          16 9 1 2 2.</_></rects>
      <tilted>0</tilted></_>
    <_>
      <rects>
        <_>
          15 9 39 6 -1.</_>
        <_>
          28 11 13 2 9.</_></rects>
      <tilted>0</tilted></_>
    <_>
      <rects>
        <_>
          16 1 21 19 -1.</_>
        <_>
          23 1 7 19 3.</_></rects>
      <tilted>0</tilted></_>
    <_>
      <rects>
        <_>
          17 5 18 3 -1.</_>
        <_>
          23 5 6 3 3.</_></rects>
      <tilted>0</tilted></_>
    <_>
      <rects>
        <_>
          18 0 41 8 -1.</_>
        <_>
          18 4 41 4 2.</_></rects>
      <tilted>0</tilted></_>
    <_>
      <rects>
        <_>
          18 7 2 4 -1.</_>
        <_>
          19 7 1 4 2.</_></rects>
      <tilted>0</tilted></_>
    <_>
      <rects>
        <_>
          18 10 3 2 -1.</_>
        <_>
          19 10 1 2 3.</_></rects>
      <tilted>0</tilted></_>
    <_>
      <rects>
        <_>
          19 3 14 10 -1.</_>
        <_>
          26 3 7 10 2.</_></rects>
      <tilted>0</tilted></_>
    <_>
      <rects>
        <_>
          19 5 6 12 -1.</_>
        <_>
          21 5 2 12 3.</_></rects>
      <tilted>0</tilted></_>
    <_>
      <rects>
        <_>
          19 5 30 6 -1.</_>
        <_>
          29 5 10 6 3.</_></rects>
      <tilted>0</tilted></_>
    <_>
      <rects>
        <_>
          19 19 8 1 -1.</_>
        <_>
          21 19 4 1 2.</_></rects>
      <tilted>0</tilted></_>
    <_>
      <rects>
        <_>
          20 3 12 3 -1.</_>
        <_>
          24 7 4 3 3.</_></rects>
      <tilted>1</tilted></_>
    <_>
      <rects>
        <_>
          20 3 37 4 -1.</_>
        <_>
          20 4 37 2 2.</_></rects>
      <tilted>0</tilted></_>
    <_>
      <rects>
        <_>
          20 4 5 3 -1.</_>
        <_>
          20 5 5 1 3.</_></rects>
      <tilted>0</tilted></_>
    <_>
      <rects>
        <_>
          20 10 28 8 -1.</_>
        <_>
          27 10 14 8 2.</_></rects>
      <tilted>0</tilted></_>
    <_>
      <rects>
        <_>
          20 14 33 6 -1.</_>
        <_>
          20 17 33 3 2.</_></rects>
      <tilted>0</tilted></_>
    <_>
      <rects>
        <_>
          21 10 3 1 -1.</_>
        <_>
          22 10 1 1 3.</_></rects>
      <tilted>0</tilted></_>
    <_>
      <rects>
        <_>
          21 13 24 7 -1.</_>
        <_>
          29 13 8 7 3.</_></rects>
      <tilted>0</tilted></_>
    <_>
      <rects>
        <_>
          23 10 3 2 -1.</_>
        <_>
          24 10 1 2 3.</_></rects>
      <tilted>0</tilted></_>
    <_>
      <rects>
        <_>
          24 10 28 9 -1.</_>
        <_>
          24 13 28 3 3.</_></rects>
      <tilted>0</tilted></_>
    <_>
      <rects>
        <_>
          26 4 20 6 -1.</_>
        <_>
          31 4 10 6 2.</_></rects>
      <tilted>0</tilted></_>
    <_>
      <rects>
        <_>
          28 2 28 6 -1.</_>
        <_>
          28 2 14 3 2.</_>
        <_>
          42 5 14 3 2.</_></rects>
      <tilted>0</tilted></_>
    <_>
      <rects>
        <_>
          28 3 4 2 -1.</_>
        <_>
          29 3 2 2 2.</_></rects>
      <tilted>0</tilted></_>
    <_>
      <rects>
        <_>
          28 9 3 6 -1.</_>
        <_>
          29 9 1 6 3.</_></rects>
      <tilted>0</tilted></_>
    <_>
      <rects>
        <_>
          29 12 3 1 -1.</_>
        <_>
          30 13 1 1 3.</_></rects>
      <tilted>1</tilted></_>
    <_>
      <rects>
        <_>
          30 3 8 4 -1.</_>
        <_>
          32 3 4 4 2.</_></rects>
      <tilted>0</tilted></_>
    <_>
      <rects>
        <_>
          31 5 8 2 -1.</_>
        <_>
          33 5 4 2 2.</_></rects>
      <tilted>0</tilted></_>
    <_>
      <rects>
        <_>
          31 6 10 3 -1.</_>
        <_>
          31 7 10 1 3.</_></rects>
      <tilted>0</tilted></_>
    <_>
      <rects>
        <_>
          31 10 22 9 -1.</_>
        <_>
          31 13 22 3 3.</_></rects>
      <tilted>0</tilted></_>
    <_>
      <rects>
        <_>
          34 11 3 2 -1.</_>
        <_>
          35 11 1 2 3.</_></rects>
      <tilted>0</tilted></_>
    <_>
      <rects>
        <_>
          34 11 18 2 -1.</_>
        <_>
          40 11 6 2 3.</_></rects>
      <tilted>0</tilted></_>
    <_>
      <rects>
        <_>
          35 1 8 5 -1.</_>
        <_>
          37 1 4 5 2.</_></rects>
      <tilted>0</tilted></_>
    <_>
      <rects>
        <_>
          35 4 12 12 -1.</_>
        <_>
          35 4 6 6 2.</_>
        <_>
          41 10 6 6 2.</_></rects>
      <tilted>0</tilted></_>
    <_>
      <rects>
        <_>
          36 9 24 10 -1.</_>
        <_>
          42 9 12 10 2.</_></rects>
      <tilted>0</tilted></_>
    <_>
      <rects>
        <_>
          36 10 24 8 -1.</_>
        <_>
          42 10 12 8 2.</_></rects>
      <tilted>0</tilted></_>
    <_>
      <rects>
        <_>
          39 1 10 10 -1.</_>
        <_>
          39 1 5 5 2.</_>
        <_>
          44 6 5 5 2.</_></rects>
      <tilted>0</tilted></_>
    <_>
      <rects>
        <_>
          40 9 3 7 -1.</_>
        <_>
          41 9 1 7 3.</_></rects>
      <tilted>0</tilted></_>
    <_>
      <rects>
        <_>
          41 4 12 9 -1.</_>
        <_>
          45 4 4 9 3.</_></rects>
      <tilted>0</tilted></_>
    <_>
      <rects>
        <_>
          41 5 12 7 -1.</_>
        <_>
          45 5 4 7 3.</_></rects>
      <tilted>0</tilted></_>
    <_>
      <rects>
        <_>
          42 11 6 4 -1.</_>
        <_>
          45 11 3 4 2.</_></rects>
      <tilted>0</tilted></_>
    <_>
      <rects>
        <_>
          43 5 6 5 -1.</_>
        <_>
          43 5 3 5 2.</_></rects>
      <tilted>1</tilted></_>
    <_>
      <rects>
        <_>
          43 8 3 4 -1.</_>
        <_>
          44 8 1 4 3.</_></rects>
      <tilted>0</tilted></_>
    <_>
      <rects>
        <_>
          43 14 1 6 -1.</_>
        <_>
          43 17 1 3 2.</_></rects>
      <tilted>0</tilted></_>
    <_>
      <rects>
        <_>
          44 9 8 10 -1.</_>
        <_>
          48 9 4 10 2.</_></rects>
      <tilted>0</tilted></_>
    <_>
      <rects>
        <_>
          45 8 7 12 -1.</_>
        <_>
          45 11 7 6 2.</_></rects>
      <tilted>0</tilted></_>
    <_>
      <rects>
        <_>
          46 8 5 6 -1.</_>
        <_>
          46 11 5 3 2.</_></rects>
      <tilted>0</tilted></_>
    <_>
      <rects>
        <_>
          46 12 8 7 -1.</_>
        <_>
          50 12 4 7 2.</_></rects>
      <tilted>0</tilted></_>
    <_>
      <rects>
        <_>
          47 0 10 6 -1.</_>
        <_>
          45 2 10 2 3.</_></rects>
      <tilted>1</tilted></_>
    <_>
      <rects>
        <_>
          47 1 6 1 -1.</_>
        <_>
          49 1 2 1 3.</_></rects>
      <tilted>0</tilted></_>
    <_>
      <rects>
        <_>
          48 6 1 12 -1.</_>
        <_>
          45 9 1 6 2.</_></rects>
      <tilted>1</tilted></_>
    <_>
      <rects>
        <_>
          48 6 4 8 -1.</_>
        <_>
          49 6 2 8 2.</_></rects>
      <tilted>0</tilted></_>
    <_>
      <rects>
        <_>
          48 13 10 7 -1.</_>
        <_>
          53 13 5 7 2.</_></rects>
      <tilted>0</tilted></_>
    <_>
      <rects>
        <_>
          49 5 9 6 -1.</_>
        <_>
          52 8 3 6 3.</_></rects>
      <tilted>1</tilted></_>
    <_>
      <rects>
        <_>
          49 8 3 3 -1.</_>
        <_>
          50 8 1 3 3.</_></rects>
      <tilted>0</tilted></_>
    <_>
      <rects>
        <_>
          52 8 8 4 -1.</_>
        <_>
          56 8 4 4 2.</_></rects>
      <tilted>0</tilted></_>
    <_>
      <rects>
        <_>
          52 11 8 3 -1.</_>
        <_>
          56 11 4 3 2.</_></rects>
      <tilted>0</tilted></_>
    <_>
      <rects>
        <_>
          54 6 4 8 -1.</_>
        <_>
          55 6 2 8 2.</_></rects>
      <tilted>0</tilted></_>
    <_>
      <rects>
        <_>
          54 7 3 6 -1.</_>
        <_>
          55 7 1 6 3.</_></rects>
      <tilted>0</tilted></_>
    <_>
      <rects>
        <_>
          55 5 4 12 -1.</_>
        <_>
          57 5 2 12 2.</_></rects>
      <tilted>0</tilted></_>
    <_>
      <rects>
        <_>
          55 9 4 8 -1.</_>
        <_>
          55 13 4 4 2.</_></rects>
      <tilted>0</tilted></_></features></cascade>
</opencv_storage>
